const float fmish_wt[] = {0.0,
                          0.574005126953125,
                          0.939544677734375,
                          0.967010498046875,
                          0.652191162109375,
                          0.113189697265625,
                          -0.458587646484375,
                          -0.871246337890625,
                          -0.998291015625,
                          -0.81475830078125,
                          -0.393768310546875,
                          0.128631591796875,
                          0.603271484375,
                          0.912689208984375,
                          0.997955322265625,
                          0.862884521484375,
                          0.560211181640625,
                          0.1683349609375,
                          -0.232421875,
                          -0.577423095703125,
                          -0.8265380859375,
                          -0.965087890625,
                          -0.99908447265625,
                          -0.947845458984375,
                          -0.83673095703125,
                          -0.691314697265625,
                          -0.533782958984375,
                          -0.381072998046875,
                          -0.244842529296875,
                          -0.13226318359375,
                          -0.0469970703125,
                          0.00933837890625,
                          0.03631591796875,
                          0.03387451171875,
                          0.0020751953125,
                          -0.058990478515625,
                          -0.148651123046875,
                          -0.2650146484375,
                          -0.4039306640625,
                          -0.5576171875,
                          -0.71380615234375,
                          -0.85498046875,
                          -0.958770751953125,
                          -1.0,
                          -0.954345703125,
                          -0.80438232421875,
                          -0.5465087890625,
                          -0.19769287109375,
                          0.200592041015625,
                          0.584075927734375,
                          0.874908447265625,
                          0.99896240234375,
                          0.907989501953125,
                          0.600738525390625,
                          0.13482666015625,
                          -0.378143310546875,
                          -0.79766845703125,
                          -0.994964599609375,
                          -0.897705078125,
                          -0.52203369140625,
                          0.023223876953125,
                          0.565826416015625,
                          0.926116943359375,
                          0.9803466796875,
                          0.70709228515625,
                          0.197265625,
                          -0.37725830078125,
                          -0.82452392578125,
                          -0.999725341796875,
                          -0.852935791015625,
                          -0.440582275390625,
                          0.100372314453125,
                          0.603118896484375,
                          0.925750732421875,
                          0.990875244140625,
                          0.7994384765625,
                          0.418975830078125,
                          -0.04534912109375,
                          -0.484283447265625,
                          -0.81170654296875,
                          -0.97967529296875,
                          -0.980255126953125,
                          -0.83746337890625,
                          -0.5941162109375,
                          -0.298736572265625,
                          0.004974365234375,
                          0.28411865234375,
                          0.518646240234375,
                          0.700347900390625,
                          0.830108642578125,
                          0.914794921875,
                          0.9642333984375,
                          0.9888916015625,
                          0.998260498046875,
                          0.999969482421875,
                          0.999420166015625,
                          0.99932861328125,
                          0.999969482421875,
                          0.9989013671875,
                          0.9912109375,
                          0.969573974609375,
                          0.924560546875,
                          0.845611572265625,
                          0.7225341796875,
                          0.547607421875,
                          0.3187255859375,
                          0.04266357421875,
                          -0.26190185546875,
                          -0.562896728515625,
                          -0.81646728515625,
                          -0.972625732421875,
                          -0.9857177734375,
                          -0.828338623046875,
                          -0.505401611328125,
                          -0.063720703125,
                          0.40863037109375,
                          0.79754638671875,
                          0.99169921875,
                          0.919219970703125,
                          0.579803466796875,
                          0.058319091796875,
                          -0.4908447265625,
                          -0.888641357421875,
                          -0.993560791015625,
                          -0.758056640625,
                          -0.2547607421875,
                          0.3424072265625,
                          0.81884765625,
                          0.999969482421875,
                          0.81884765625,
                          0.3424072265625,
                          -0.2547607421875,
                          -0.758056640625,
                          -0.993560791015625,
                          -0.888641357421875,
                          -0.4908447265625,
                          0.058319091796875,
                          0.579803466796875,
                          0.919219970703125,
                          0.99169921875,
                          0.79754638671875,
                          0.40863037109375,
                          -0.063720703125,
                          -0.505401611328125,
                          -0.828338623046875,
                          -0.9857177734375,
                          -0.972625732421875,
                          -0.81646728515625,
                          -0.562896728515625,
                          -0.26190185546875,
                          0.04266357421875,
                          0.3187255859375,
                          0.547607421875,
                          0.7225341796875,
                          0.845611572265625,
                          0.924560546875,
                          0.969573974609375,
                          0.9912109375,
                          0.9989013671875,
                          0.999969482421875,
                          0.99932861328125,
                          0.999420166015625,
                          0.999969482421875,
                          0.998260498046875,
                          0.9888916015625,
                          0.9642333984375,
                          0.914794921875,
                          0.830108642578125,
                          0.700347900390625,
                          0.518646240234375,
                          0.28411865234375,
                          0.004974365234375,
                          -0.298736572265625,
                          -0.5941162109375,
                          -0.83746337890625,
                          -0.980255126953125,
                          -0.97967529296875,
                          -0.81170654296875,
                          -0.484283447265625,
                          -0.04534912109375,
                          0.418975830078125,
                          0.7994384765625,
                          0.990875244140625,
                          0.925750732421875,
                          0.603118896484375,
                          0.100372314453125,
                          -0.440582275390625,
                          -0.852935791015625,
                          -0.999725341796875,
                          -0.82452392578125,
                          -0.37725830078125,
                          0.197265625,
                          0.70709228515625,
                          0.9803466796875,
                          0.926116943359375,
                          0.565826416015625,
                          0.023223876953125,
                          -0.52203369140625,
                          -0.897705078125,
                          -0.994964599609375,
                          -0.79766845703125,
                          -0.378143310546875,
                          0.13482666015625,
                          0.600738525390625,
                          0.907989501953125,
                          0.99896240234375,
                          0.874908447265625,
                          0.584075927734375,
                          0.200592041015625,
                          -0.19769287109375,
                          -0.5465087890625,
                          -0.80438232421875,
                          -0.954345703125,
                          -1.0,
                          -0.958770751953125,
                          -0.85498046875,
                          -0.71380615234375,
                          -0.5576171875,
                          -0.4039306640625,
                          -0.2650146484375,
                          -0.148651123046875,
                          -0.058990478515625,
                          0.0020751953125,
                          0.03387451171875,
                          0.03631591796875,
                          0.00933837890625,
                          -0.0469970703125,
                          -0.13226318359375,
                          -0.244842529296875,
                          -0.381072998046875,
                          -0.533782958984375,
                          -0.691314697265625,
                          -0.83673095703125,
                          -0.947845458984375,
                          -0.99908447265625,
                          -0.965087890625,
                          -0.8265380859375,
                          -0.577423095703125,
                          -0.232421875,
                          0.1683349609375,
                          0.560211181640625,
                          0.862884521484375,
                          0.997955322265625,
                          0.912689208984375,
                          0.603271484375,
                          0.128631591796875,
                          -0.393768310546875,
                          -0.81475830078125,
                          -0.998291015625,
                          -0.871246337890625,
                          -0.458587646484375,
                          0.113189697265625,
                          0.652191162109375,
                          0.967010498046875,
                          0.939544677734375,
                          0.574005126953125,
                          0.0,
                          -0.574005126953125,
                          -0.939544677734375,
                          -0.967010498046875,
                          -0.652191162109375,
                          -0.113189697265625,
                          0.458587646484375,
                          0.871246337890625,
                          0.998291015625,
                          0.81475830078125,
                          0.393768310546875,
                          -0.128631591796875,
                          -0.603271484375,
                          -0.912689208984375,
                          -0.997955322265625,
                          -0.862884521484375,
                          -0.560211181640625,
                          -0.1683349609375,
                          0.232421875,
                          0.577423095703125,
                          0.8265380859375,
                          0.965087890625,
                          0.99908447265625,
                          0.947845458984375,
                          0.83673095703125,
                          0.691314697265625,
                          0.533782958984375,
                          0.381072998046875,
                          0.244842529296875,
                          0.13226318359375,
                          0.0469970703125,
                          -0.00933837890625,
                          -0.03631591796875,
                          -0.03387451171875,
                          -0.0020751953125,
                          0.058990478515625,
                          0.148651123046875,
                          0.2650146484375,
                          0.4039306640625,
                          0.5576171875,
                          0.71380615234375,
                          0.85498046875,
                          0.958770751953125,
                          0.999969482421875,
                          0.954345703125,
                          0.80438232421875,
                          0.5465087890625,
                          0.19769287109375,
                          -0.200592041015625,
                          -0.584075927734375,
                          -0.874908447265625,
                          -0.99896240234375,
                          -0.907989501953125,
                          -0.600738525390625,
                          -0.13482666015625,
                          0.378143310546875,
                          0.79766845703125,
                          0.994964599609375,
                          0.897705078125,
                          0.52203369140625,
                          -0.023223876953125,
                          -0.565826416015625,
                          -0.926116943359375,
                          -0.9803466796875,
                          -0.70709228515625,
                          -0.197265625,
                          0.37725830078125,
                          0.82452392578125,
                          0.999725341796875,
                          0.852935791015625,
                          0.440582275390625,
                          -0.100372314453125,
                          -0.603118896484375,
                          -0.925750732421875,
                          -0.990875244140625,
                          -0.7994384765625,
                          -0.418975830078125,
                          0.04534912109375,
                          0.484283447265625,
                          0.81170654296875,
                          0.97967529296875,
                          0.980255126953125,
                          0.83746337890625,
                          0.5941162109375,
                          0.298736572265625,
                          -0.004974365234375,
                          -0.28411865234375,
                          -0.518646240234375,
                          -0.700347900390625,
                          -0.830108642578125,
                          -0.914794921875,
                          -0.9642333984375,
                          -0.9888916015625,
                          -0.998260498046875,
                          -1.0,
                          -0.999420166015625,
                          -0.99932861328125,
                          -0.999969482421875,
                          -0.9989013671875,
                          -0.9912109375,
                          -0.969573974609375,
                          -0.924560546875,
                          -0.845611572265625,
                          -0.7225341796875,
                          -0.547607421875,
                          -0.3187255859375,
                          -0.04266357421875,
                          0.26190185546875,
                          0.562896728515625,
                          0.81646728515625,
                          0.972625732421875,
                          0.9857177734375,
                          0.828338623046875,
                          0.505401611328125,
                          0.063720703125,
                          -0.40863037109375,
                          -0.79754638671875,
                          -0.99169921875,
                          -0.919219970703125,
                          -0.579803466796875,
                          -0.058319091796875,
                          0.4908447265625,
                          0.888641357421875,
                          0.993560791015625,
                          0.758056640625,
                          0.2547607421875,
                          -0.3424072265625,
                          -0.81884765625,
                          -1.0,
                          -0.81884765625,
                          -0.3424072265625,
                          0.2547607421875,
                          0.758056640625,
                          0.993560791015625,
                          0.888641357421875,
                          0.4908447265625,
                          -0.058319091796875,
                          -0.579803466796875,
                          -0.919219970703125,
                          -0.99169921875,
                          -0.79754638671875,
                          -0.40863037109375,
                          0.063720703125,
                          0.505401611328125,
                          0.828338623046875,
                          0.9857177734375,
                          0.972625732421875,
                          0.81646728515625,
                          0.562896728515625,
                          0.26190185546875,
                          -0.04266357421875,
                          -0.3187255859375,
                          -0.547607421875,
                          -0.7225341796875,
                          -0.845611572265625,
                          -0.924560546875,
                          -0.969573974609375,
                          -0.9912109375,
                          -0.9989013671875,
                          -0.999969482421875,
                          -0.99932861328125,
                          -0.999420166015625,
                          -1.0,
                          -0.998260498046875,
                          -0.9888916015625,
                          -0.9642333984375,
                          -0.914794921875,
                          -0.830108642578125,
                          -0.700347900390625,
                          -0.518646240234375,
                          -0.28411865234375,
                          -0.004974365234375,
                          0.298736572265625,
                          0.5941162109375,
                          0.83746337890625,
                          0.980255126953125,
                          0.97967529296875,
                          0.81170654296875,
                          0.484283447265625,
                          0.04534912109375,
                          -0.418975830078125,
                          -0.7994384765625,
                          -0.990875244140625,
                          -0.925750732421875,
                          -0.603118896484375,
                          -0.100372314453125,
                          0.440582275390625,
                          0.852935791015625,
                          0.999725341796875,
                          0.82452392578125,
                          0.37725830078125,
                          -0.197265625,
                          -0.70709228515625,
                          -0.9803466796875,
                          -0.926116943359375,
                          -0.565826416015625,
                          -0.023223876953125,
                          0.52203369140625,
                          0.897705078125,
                          0.994964599609375,
                          0.79766845703125,
                          0.378143310546875,
                          -0.13482666015625,
                          -0.600738525390625,
                          -0.907989501953125,
                          -0.99896240234375,
                          -0.874908447265625,
                          -0.584075927734375,
                          -0.200592041015625,
                          0.19769287109375,
                          0.5465087890625,
                          0.80438232421875,
                          0.954345703125,
                          0.999969482421875,
                          0.958770751953125,
                          0.85498046875,
                          0.71380615234375,
                          0.5576171875,
                          0.4039306640625,
                          0.2650146484375,
                          0.148651123046875,
                          0.058990478515625,
                          -0.0020751953125,
                          -0.03387451171875,
                          -0.03631591796875,
                          -0.00933837890625,
                          0.0469970703125,
                          0.13226318359375,
                          0.244842529296875,
                          0.381072998046875,
                          0.533782958984375,
                          0.691314697265625,
                          0.83673095703125,
                          0.947845458984375,
                          0.99908447265625,
                          0.965087890625,
                          0.8265380859375,
                          0.577423095703125,
                          0.232421875,
                          -0.1683349609375,
                          -0.560211181640625,
                          -0.862884521484375,
                          -0.997955322265625,
                          -0.912689208984375,
                          -0.603271484375,
                          -0.128631591796875,
                          0.393768310546875,
                          0.81475830078125,
                          0.998291015625,
                          0.871246337890625,
                          0.458587646484375,
                          -0.113189697265625,
                          -0.652191162109375,
                          -0.967010498046875,
                          -0.939544677734375,
                          -0.574005126953125};
const float const_wt[] = {0.0,
                          0.131134033203125,
                          0.25970458984375,
                          0.383270263671875,
                          0.499481201171875,
                          0.606353759765625,
                          0.7021484375,
                          0.78546142578125,
                          0.8553466796875,
                          0.911285400390625,
                          0.95318603515625,
                          0.981414794921875,
                          0.99664306640625,
                          0.999969482421875,
                          0.992889404296875,
                          0.9769287109375,
                          0.953948974609375,
                          0.92584228515625,
                          0.894500732421875,
                          0.861785888671875,
                          0.82940673828125,
                          0.798919677734375,
                          0.7716064453125,
                          0.74847412109375,
                          0.73028564453125,
                          0.717376708984375,
                          0.709930419921875,
                          0.707672119140625,
                          0.710235595703125,
                          0.7169189453125,
                          0.726898193359375,
                          0.73919677734375,
                          0.7528076171875,
                          0.766754150390625,
                          0.77996826171875,
                          0.791656494140625,
                          0.800994873046875,
                          0.807464599609375,
                          0.81060791015625,
                          0.81024169921875,
                          0.806396484375,
                          0.799224853515625,
                          0.78912353515625,
                          0.776580810546875,
                          0.76220703125,
                          0.7467041015625,
                          0.73077392578125,
                          0.71514892578125,
                          0.70050048828125,
                          0.6873779296875,
                          0.676300048828125,
                          0.667572021484375,
                          0.66143798828125,
                          0.657928466796875,
                          0.656982421875,
                          0.6583251953125,
                          0.661651611328125,
                          0.666473388671875,
                          0.67230224609375,
                          0.6785888671875,
                          0.68475341796875,
                          0.69024658203125,
                          0.69464111328125,
                          0.697479248046875,
                          0.698486328125,
                          0.69744873046875,
                          0.69427490234375,
                          0.68902587890625,
                          0.681884765625,
                          0.673065185546875,
                          0.6629638671875,
                          0.65191650390625,
                          0.64044189453125,
                          0.628997802734375,
                          0.61798095703125,
                          0.60784912109375,
                          0.59893798828125,
                          0.591522216796875,
                          0.585784912109375,
                          0.58184814453125,
                          0.579681396484375,
                          0.579132080078125,
                          0.580047607421875,
                          0.5821533203125,
                          0.585052490234375,
                          0.58843994140625,
                          0.59185791015625,
                          0.594940185546875,
                          0.59735107421875,
                          0.5987548828125,
                          0.598876953125,
                          0.597564697265625,
                          0.5947265625,
                          0.59033203125,
                          0.584503173828125,
                          0.577362060546875,
                          0.56915283203125,
                          0.5601806640625,
                          0.550750732421875,
                          0.54119873046875,
                          0.531890869140625,
                          0.523162841796875,
                          0.515289306640625,
                          0.50848388671875,
                          0.5029296875,
                          0.498748779296875,
                          0.495941162109375,
                          0.49444580078125,
                          0.494110107421875,
                          0.494781494140625,
                          0.496185302734375,
                          0.498046875,
                          0.50006103515625,
                          0.50189208984375,
                          0.503265380859375,
                          0.50390625,
                          0.503570556640625,
                          0.502166748046875,
                          0.49951171875,
                          0.49560546875,
                          0.490509033203125,
                          0.484344482421875,
                          0.477203369140625,
                          0.469390869140625,
                          0.46112060546875,
                          0.452667236328125,
                          0.4443359375,
                          0.436370849609375,
                          0.4290771484375,
                          0.422607421875,
                          0.417144775390625,
                          0.41278076171875,
                          0.4095458984375,
                          0.407470703125,
                          0.406402587890625,
                          0.406219482421875,
                          0.406707763671875,
                          0.40765380859375,
                          0.408782958984375,
                          0.409881591796875,
                          0.410614013671875,
                          0.41082763671875,
                          0.4102783203125,
                          0.408782958984375,
                          0.40631103515625,
                          0.402740478515625,
                          0.39813232421875,
                          0.392547607421875,
                          0.386138916015625,
                          0.379058837890625,
                          0.37152099609375,
                          0.363739013671875,
                          0.35601806640625,
                          0.348541259765625,
                          0.341552734375,
                          0.33526611328125,
                          0.329833984375,
                          0.3253173828125,
                          0.32183837890625,
                          0.319305419921875,
                          0.3177490234375,
                          0.316986083984375,
                          0.316864013671875,
                          0.317230224609375,
                          0.31781005859375,
                          0.31842041015625,
                          0.31878662109375,
                          0.3187255859375,
                          0.318023681640625,
                          0.316558837890625,
                          0.314208984375,
                          0.3109130859375,
                          0.306640625,
                          0.301513671875,
                          0.295562744140625,
                          0.288970947265625,
                          0.28192138671875,
                          0.274627685546875,
                          0.26727294921875,
                          0.260101318359375,
                          0.253326416015625,
                          0.24713134765625,
                          0.24163818359375,
                          0.237030029296875,
                          0.2332763671875,
                          0.23046875,
                          0.228515625,
                          0.227325439453125,
                          0.226806640625,
                          0.22674560546875,
                          0.226959228515625,
                          0.227264404296875,
                          0.2274169921875,
                          0.227203369140625,
                          0.2264404296875,
                          0.22503662109375,
                          0.222808837890625,
                          0.2197265625,
                          0.21575927734375,
                          0.2109375,
                          0.205352783203125,
                          0.199127197265625,
                          0.192413330078125,
                          0.185394287109375,
                          0.17828369140625,
                          0.171295166015625,
                          0.16461181640625,
                          0.158447265625,
                          0.152923583984375,
                          0.14813232421875,
                          0.144195556640625,
                          0.14111328125,
                          0.138885498046875,
                          0.13739013671875,
                          0.136566162109375,
                          0.13623046875,
                          0.136199951171875,
                          0.13629150390625,
                          0.13629150390625,
                          0.13604736328125,
                          0.13531494140625,
                          0.13397216796875,
                          0.131866455078125,
                          0.128997802734375,
                          0.125244140625,
                          0.120697021484375,
                          0.115386962890625,
                          0.109405517578125,
                          0.102935791015625,
                          0.09613037109375,
                          0.08917236328125,
                          0.082275390625,
                          0.07562255859375,
                          0.06939697265625,
                          0.06378173828125,
                          0.058837890625,
                          0.054718017578125,
                          0.051422119140625,
                          0.048919677734375,
                          0.047210693359375,
                          0.046142578125,
                          0.045623779296875,
                          0.045440673828125,
                          0.04541015625,
                          0.045379638671875,
                          0.045135498046875,
                          0.044464111328125,
                          0.043243408203125,
                          0.04132080078125,
                          0.03863525390625,
                          0.03509521484375,
                          0.030792236328125,
                          0.025665283203125,
                          0.0198974609375,
                          0.013580322265625,
                          0.00689697265625,
                          0.0,
                          -0.00689697265625,
                          -0.013580322265625,
                          -0.0198974609375,
                          -0.025665283203125,
                          -0.030792236328125,
                          -0.03509521484375,
                          -0.03863525390625,
                          -0.04132080078125,
                          -0.043243408203125,
                          -0.044464111328125,
                          -0.045135498046875,
                          -0.045379638671875,
                          -0.04541015625,
                          -0.045440673828125,
                          -0.045623779296875,
                          -0.046142578125,
                          -0.047210693359375,
                          -0.048919677734375,
                          -0.051422119140625,
                          -0.054718017578125,
                          -0.058837890625,
                          -0.06378173828125,
                          -0.06939697265625,
                          -0.07562255859375,
                          -0.082275390625,
                          -0.08917236328125,
                          -0.09613037109375,
                          -0.102935791015625,
                          -0.109405517578125,
                          -0.115386962890625,
                          -0.120697021484375,
                          -0.125244140625,
                          -0.128997802734375,
                          -0.131866455078125,
                          -0.13397216796875,
                          -0.13531494140625,
                          -0.13604736328125,
                          -0.13629150390625,
                          -0.13629150390625,
                          -0.136199951171875,
                          -0.13623046875,
                          -0.136566162109375,
                          -0.13739013671875,
                          -0.138885498046875,
                          -0.14111328125,
                          -0.144195556640625,
                          -0.14813232421875,
                          -0.152923583984375,
                          -0.158447265625,
                          -0.16461181640625,
                          -0.171295166015625,
                          -0.17828369140625,
                          -0.185394287109375,
                          -0.192413330078125,
                          -0.199127197265625,
                          -0.205352783203125,
                          -0.2109375,
                          -0.21575927734375,
                          -0.2197265625,
                          -0.222808837890625,
                          -0.22503662109375,
                          -0.2264404296875,
                          -0.227203369140625,
                          -0.2274169921875,
                          -0.227264404296875,
                          -0.226959228515625,
                          -0.22674560546875,
                          -0.226806640625,
                          -0.227325439453125,
                          -0.228515625,
                          -0.23046875,
                          -0.2332763671875,
                          -0.237030029296875,
                          -0.24163818359375,
                          -0.24713134765625,
                          -0.253326416015625,
                          -0.260101318359375,
                          -0.26727294921875,
                          -0.274627685546875,
                          -0.28192138671875,
                          -0.288970947265625,
                          -0.295562744140625,
                          -0.301513671875,
                          -0.306640625,
                          -0.3109130859375,
                          -0.314208984375,
                          -0.316558837890625,
                          -0.318023681640625,
                          -0.3187255859375,
                          -0.31878662109375,
                          -0.31842041015625,
                          -0.31781005859375,
                          -0.317230224609375,
                          -0.316864013671875,
                          -0.316986083984375,
                          -0.3177490234375,
                          -0.319305419921875,
                          -0.32183837890625,
                          -0.3253173828125,
                          -0.329833984375,
                          -0.33526611328125,
                          -0.341552734375,
                          -0.348541259765625,
                          -0.35601806640625,
                          -0.363739013671875,
                          -0.37152099609375,
                          -0.379058837890625,
                          -0.386138916015625,
                          -0.392547607421875,
                          -0.39813232421875,
                          -0.402740478515625,
                          -0.40631103515625,
                          -0.408782958984375,
                          -0.4102783203125,
                          -0.41082763671875,
                          -0.410614013671875,
                          -0.409881591796875,
                          -0.408782958984375,
                          -0.40765380859375,
                          -0.406707763671875,
                          -0.406219482421875,
                          -0.406402587890625,
                          -0.407470703125,
                          -0.4095458984375,
                          -0.41278076171875,
                          -0.417144775390625,
                          -0.422607421875,
                          -0.4290771484375,
                          -0.436370849609375,
                          -0.4443359375,
                          -0.452667236328125,
                          -0.46112060546875,
                          -0.469390869140625,
                          -0.477203369140625,
                          -0.484344482421875,
                          -0.490509033203125,
                          -0.49560546875,
                          -0.49951171875,
                          -0.502166748046875,
                          -0.503570556640625,
                          -0.50390625,
                          -0.503265380859375,
                          -0.50189208984375,
                          -0.50006103515625,
                          -0.498046875,
                          -0.496185302734375,
                          -0.494781494140625,
                          -0.494110107421875,
                          -0.49444580078125,
                          -0.495941162109375,
                          -0.498748779296875,
                          -0.5029296875,
                          -0.50848388671875,
                          -0.515289306640625,
                          -0.523162841796875,
                          -0.531890869140625,
                          -0.54119873046875,
                          -0.550750732421875,
                          -0.5601806640625,
                          -0.56915283203125,
                          -0.577362060546875,
                          -0.584503173828125,
                          -0.59033203125,
                          -0.5947265625,
                          -0.597564697265625,
                          -0.598876953125,
                          -0.5987548828125,
                          -0.59735107421875,
                          -0.594940185546875,
                          -0.59185791015625,
                          -0.58843994140625,
                          -0.585052490234375,
                          -0.5821533203125,
                          -0.580047607421875,
                          -0.579132080078125,
                          -0.579681396484375,
                          -0.58184814453125,
                          -0.585784912109375,
                          -0.591522216796875,
                          -0.59893798828125,
                          -0.60784912109375,
                          -0.61798095703125,
                          -0.628997802734375,
                          -0.64044189453125,
                          -0.65191650390625,
                          -0.6629638671875,
                          -0.673065185546875,
                          -0.681884765625,
                          -0.68902587890625,
                          -0.69427490234375,
                          -0.69744873046875,
                          -0.698486328125,
                          -0.697479248046875,
                          -0.69464111328125,
                          -0.69024658203125,
                          -0.68475341796875,
                          -0.6785888671875,
                          -0.67230224609375,
                          -0.666473388671875,
                          -0.661651611328125,
                          -0.6583251953125,
                          -0.656982421875,
                          -0.657928466796875,
                          -0.66143798828125,
                          -0.667572021484375,
                          -0.676300048828125,
                          -0.6873779296875,
                          -0.70050048828125,
                          -0.71514892578125,
                          -0.73077392578125,
                          -0.7467041015625,
                          -0.76220703125,
                          -0.776580810546875,
                          -0.78912353515625,
                          -0.799224853515625,
                          -0.806396484375,
                          -0.81024169921875,
                          -0.81060791015625,
                          -0.807464599609375,
                          -0.800994873046875,
                          -0.791656494140625,
                          -0.77996826171875,
                          -0.766754150390625,
                          -0.7528076171875,
                          -0.73919677734375,
                          -0.726898193359375,
                          -0.7169189453125,
                          -0.710235595703125,
                          -0.707672119140625,
                          -0.709930419921875,
                          -0.717376708984375,
                          -0.73028564453125,
                          -0.74847412109375,
                          -0.7716064453125,
                          -0.798919677734375,
                          -0.82940673828125,
                          -0.861785888671875,
                          -0.894500732421875,
                          -0.92584228515625,
                          -0.953948974609375,
                          -0.9769287109375,
                          -0.992889404296875,
                          -1.0,
                          -0.99664306640625,
                          -0.981414794921875,
                          -0.95318603515625,
                          -0.911285400390625,
                          -0.8553466796875,
                          -0.78546142578125,
                          -0.7021484375,
                          -0.606353759765625,
                          -0.499481201171875,
                          -0.383270263671875,
                          -0.25970458984375,
                          -0.131134033203125};